{
    "layers": [
        {
            "neurons": [
                {
                    "activation": 2,
                    "bias": -0.13004598380568255,
                    "weights": [
                        0.0816290087434644,
                        0.0582660570561514,
                        0.009330512980780276,
                        0.05796306853728139,
                        0.009031920983584879,
                        -0.07668783487178153,
                        0.006974384855713778,
                        0.17158715257529006,
                        0.15821591323519407,
                        -0.19223092355112065,
                        -0.09175841413035575,
                        -0.10796266917203617,
                        0.10657434629113666,
                        0.11324258253747377,
                        0.02748176313854156,
                        -0.16820184406022065,
                        0.1495303048368954,
                        -0.15279059192292507,
                        -0.013564024930269147,
                        -0.07684806231783306
                    ]
                },
                {
                    "activation": 2,
                    "bias": -0.15245944491677788,
                    "weights": [
                        0.07774461418739503,
                        0.007128909900222968,
                        -0.17190979512714588,
                        0.08063987214737833,
                        -0.026324854944490994,
                        -0.01848302230634641,
                        -0.1615136136755138,
                        0.19750192048477533,
                        0.10436599391051699,
                        0.09933622978357703,
                        0.1486062182427425,
                        0.09971998711082286,
                        -0.19843468524917773,
                        -0.14360768365295262,
                        0.14175742571781652,
                        0.1381464293257289,
                        0.1852207219401043,
                        0.07772178755586051,
                        -0.019742524422272145,
                        0.19057591904163584
                    ]
                },
                {
                    "activation": 2,
                    "bias": 0.08929024244895473,
                    "weights": [
                        -0.1180349990937652,
                        -0.11244451089550896,
                        0.03353336642552632,
                        -0.0686879150898386,
                        0.021853180114788484,
                        0.09025716543457518,
                        0.12108723686965006,
                        0.18394454614616962,
                        0.06064746276235933,
                        0.10515243923361528,
                        0.09904699095358649,
                        -0.10453350744062351,
                        -0.12416671451986497,
                        -0.1430218779192065,
                        0.17938060991041227,
                        -0.1567149301153664,
                        -0.009879679490102544,
                        -0.07818255860401072,
                        0.09223338325625263,
                        -0.11913313380677898
                    ]
                },
                {
                    "activation": 2,
                    "bias": 0.047718839543303415,
                    "weights": [
                        0.0638164913750251,
                        0.11625101046921221,
                        -0.12342586144610285,
                        0.06205014758797961,
                        0.15648968420889603,
                        -0.03595540226270916,
                        -0.13071577911665172,
                        -0.029496606816628634,
                        -0.19514952945371486,
                        0.19437800750384276,
                        -0.08770609411476454,
                        0.13381510245576494,
                        -0.15877406448792467,
                        0.16678221524400233,
                        -0.18263023357998942,
                        0.03373381685066423,
                        -0.1746132000604652,
                        0.08800883572428281,
                        0.07786765811310048,
                        0.08181147606603884
                    ]
                },
                {
                    "activation": 2,
                    "bias": -0.06864292130001495,
                    "weights": [
                        -0.1755084505104041,
                        -0.028802126070833045,
                        -0.16928291000128987,
                        -0.11041080421316343,
                        -0.1255981321874894,
                        -0.04695742191043756,
                        0.018571771518241464,
                        0.11375834478412139,
                        0.017093842990093838,
                        -0.0819426342057502,
                        0.01098027849354527,
                        -0.1905910207485907,
                        0.08468748896531009,
                        -0.0202418060421011,
                        -0.13417689506073927,
                        0.11269791504473958,
                        -0.11304057283617418,
                        -0.04235692079052514,
                        0.0636561629381534,
                        -0.19992293216508303
                    ]
                },
                {
                    "activation": 2,
                    "bias": -0.12736234530003,
                    "weights": [
                        0.0004534859482231701,
                        -0.014365519082789685,
                        0.17670775100433345,
                        0.11084475532952554,
                        0.11039910094257172,
                        -0.15731594046665168,
                        -0.16075790842265622,
                        -0.09318005251950862,
                        -0.049799587285291436,
                        0.15029608454705973,
                        0.14221544389453256,
                        -0.06707564958590845,
                        0.05064198177926044,
                        0.07759280104895055,
                        0.1628044465744929,
                        -0.0003211744079671397,
                        0.160992850081693,
                        -0.07791584929386959,
                        0.12437681678901502,
                        -0.0176927167251118
                    ]
                },
                {
                    "activation": 2,
                    "bias": -0.10110357871863496,
                    "weights": [
                        0.11220090063040833,
                        -0.028539977790672577,
                        -0.06836938531699341,
                        -0.07415198901611952,
                        0.08459255200942845,
                        -0.19893621347018434,
                        -0.0645852727487681,
                        0.1427913684176147,
                        -0.054138158973014744,
                        0.05493745575635184,
                        -0.11852822865325684,
                        0.056036078149931445,
                        0.19117430805501767,
                        -0.17903691044466666,
                        -0.08432245930100098,
                        -0.0009850104026519202,
                        0.04942382098481146,
                        -0.05692989333584997,
                        0.08204938109243509,
                        -0.17534999404564192
                    ]
                },
                {
                    "activation": 2,
                    "bias": -0.16419142613965884,
                    "weights": [
                        0.09565592964564573,
                        -0.012384786644169393,
                        -0.12879523259829379,
                        -0.1857830949431678,
                        -0.004133227394803596,
                        -0.13504359048208542,
                        0.011714074962707072,
                        0.1786998863971786,
                        0.16264198490381054,
                        -0.1452589881590811,
                        -0.162122711627679,
                        -0.0674794224633474,
                        0.1990465187930443,
                        -0.031030988806979742,
                        0.08160968247666983,
                        -0.17264014426765764,
                        -0.01591849407091539,
                        -0.17712683506985535,
                        -0.04863088380751335,
                        -0.03506955996947711
                    ]
                },
                {
                    "activation": 2,
                    "bias": -0.12874380814638664,
                    "weights": [
                        -0.10000168660466158,
                        0.15757273723551413,
                        -0.18703051358352463,
                        -0.114202151625401,
                        0.018300801507364156,
                        -0.10716463649719898,
                        -0.10342151632564832,
                        -0.17936549193528425,
                        -0.014693663855678801,
                        0.07532292194643342,
                        -0.0417741594923032,
                        -0.04633468963597914,
                        -0.16962146087854243,
                        0.19617386969086065,
                        -0.0038523731996199795,
                        -0.18843027894500525,
                        0.07996841204254468,
                        -0.09430830296987676,
                        0.13149427945419845,
                        0.06111686556681828
                    ]
                },
                {
                    "activation": 2,
                    "bias": 0.015083597741413934,
                    "weights": [
                        0.14546250064871485,
                        -0.1085472737611291,
                        -0.08601512994794734,
                        0.16747869390640074,
                        -0.18818727623416984,
                        -0.07502089664231955,
                        -0.08872924859129605,
                        -0.11316185920505864,
                        0.1774951832129794,
                        -0.1317556013531224,
                        -0.15956309339638072,
                        -0.14297636931731206,
                        0.03905215421382793,
                        0.13231652032642444,
                        0.10962122759873483,
                        -0.12187922248122365,
                        -0.11179751732266477,
                        -0.03386057790001673,
                        -0.19611799029613308,
                        -0.08131185431164961
                    ]
                }
            ]
        },
        {
            "neurons": [
                {
                    "activation": 2,
                    "bias": 0.912841488207304,
                    "weights": [
                        0.3002440915147552,
                        13.581303661441858,
                        -8.256038113683655,
                        12.000583424617165,
                        -14.41906056433992,
                        8.058580349279492,
                        -13.61482773051035,
                        -14.060739133179133,
                        13.406890331561874,
                        -11.280019355208367
                    ]
                },
                {
                    "activation": 2,
                    "bias": -0.25249442734460664,
                    "weights": [
                        -23.18579370918328,
                        16.62549217962348,
                        23.78702129787839,
                        -14.695150738420338,
                        -5.531420647097699,
                        12.227105307175638,
                        -3.2855004271517965,
                        -16.132508024147597,
                        -16.342007866171148,
                        18.53037912779273
                    ]
                }
            ]
        }
    ]
}